<?xml version="1.0"?>
<opencv_storage>
<cascade>
  <stageType>BOOST</stageType>
  <featureType>LBP</featureType>
  <height>24</height>
  <width>24</width>
  <stageParams>
    <boostType>GAB</boostType>
    <minHitRate>9.9500000476837158e-001</minHitRate>
    <maxFalseAlarm>5.0000000000000000e-001</maxFalseAlarm>
    <weightTrimRate>9.4999998807907104e-001</weightTrimRate>
    <maxDepth>1</maxDepth>
    <maxWeakCount>100</maxWeakCount></stageParams>
  <featureParams>
    <maxCatCount>256</maxCatCount>
    <featSize>1</featSize></featureParams>
  <stageNum>4</stageNum>
  <stages>
    <!-- stage 0 -->
    <_>
      <maxWeakCount>3</maxWeakCount>
      <stageThreshold>-1.2415074110031128e+000</stageThreshold>
      <weakClassifiers>
        <_>
          <internalNodes>
            0 -1 6 -1025 -41946809 -783167017 -203564649 -106708037
            -621887447 -68431393 -1</internalNodes>
          <leafValues>
            -9.8116946220397949e-001 9.2592591047286987e-001</leafValues></_>
        <_>
          <internalNodes>
            0 -1 3 -19922945 -545796077 1526764511 -549334761 -99886145
            -351550841 -208941057 -536880385</internalNodes>
          <leafValues>
            -9.7217863798141479e-001 7.0832455158233643e-001</leafValues></_>
        <_>
          <internalNodes>
            0 -1 5 -606079489 -2260973 285955583 -681716337 -99690277
            -17121125 -108992003 -608175745</internalNodes>
          <leafValues>
            -9.6866255998611450e-001 7.6046472787857056e-001</leafValues></_></weakClassifiers></_>
    <!-- stage 1 -->
    <_>
      <maxWeakCount>2</maxWeakCount>
      <stageThreshold>-5.1192462444305420e-001</stageThreshold>
      <weakClassifiers>
        <_>
          <internalNodes>
            0 -1 2 -1025 -34094337 -231475977 -8924837 -33817601
            -67187717 -77355041 -1048577</internalNodes>
          <leafValues>
            -9.8407959938049316e-001 6.5714287757873535e-001</leafValues></_>
        <_>
          <internalNodes>
            0 -1 4 -10488837 -69229573 1362885115 -564133893 -4525390
            -73686609 -133431297 -1537</internalNodes>
          <leafValues>
            -9.9020820856094360e-001 4.7215497493743896e-001</leafValues></_></weakClassifiers></_>
    <!-- stage 2 -->
    <_>
      <maxWeakCount>2</maxWeakCount>
      <stageThreshold>-3.1818968057632446e-001</stageThreshold>
      <weakClassifiers>
        <_>
          <internalNodes>
            0 -1 1 -777527329 -779512830 824185055 -721305253 -670529281
            -1970628608 -1999642981 -68157697</internalNodes>
          <leafValues>
            -9.8709678649902344e-001 6.5217393636703491e-001</leafValues></_>
        <_>
          <internalNodes>
            0 -1 7 -78121473 -44875495 -1979708833 -171880175 -939490934
            -1121746944 -1451107397 -5252929</internalNodes>
          <leafValues>
            -9.7036361694335938e-001 9.1184508800506592e-001</leafValues></_></weakClassifiers></_>
    <!-- stage 3 -->
    <_>
      <maxWeakCount>1</maxWeakCount>
      <stageThreshold>1.</stageThreshold>
      <weakClassifiers>
        <_>
          <internalNodes>
            0 -1 0 32784 -1862270976 2 0 0 0 0 1208025089</internalNodes>
          <leafValues>
            -1. 1.</leafValues></_></weakClassifiers></_></stages>
  <features>
    <_>
      <rect>
        0 0 2 3</rect></_>
    <_>
      <rect>
        0 4 4 3</rect></_>
    <_>
      <rect>
        1 14 3 2</rect></_>
    <_>
      <rect>
        3 14 2 2</rect></_>
    <_>
      <rect>
        9 5 5 5</rect></_>
    <_>
      <rect>
        9 18 4 1</rect></_>
    <_>
      <rect>
        10 3 4 6</rect></_>
    <_>
      <rect>
        13 5 3 2</rect></_></features></cascade>
</opencv_storage>
