<?xml version="1.0"?>
<opencv_storage>
<cascade>
  <stageType>BOOST</stageType>
  <featureType>HAAR</featureType>
  <height>24</height>
  <width>24</width>
  <stageParams>
    <boostType>GAB</boostType>
    <minHitRate>9.9500000476837158e-001</minHitRate>
    <maxFalseAlarm>5.0000000000000000e-001</maxFalseAlarm>
    <weightTrimRate>9.4999998807907104e-001</weightTrimRate>
    <maxDepth>1</maxDepth>
    <maxWeakCount>100</maxWeakCount></stageParams>
  <featureParams>
    <maxCatCount>0</maxCatCount>
    <featSize>1</featSize>
    <mode>BASIC</mode></featureParams>
  <stageNum>10</stageNum>
  <stages>
    <!-- stage 0 -->
    <_>
      <maxWeakCount>2</maxWeakCount>
      <stageThreshold>4.7701373696327209e-003</stageThreshold>
      <weakClassifiers>
        <_>
          <internalNodes>
            0 -1 3 5.4113087244331837e-003</internalNodes>
          <leafValues>
            -9.2156863212585449e-001 9.5454543828964233e-001</leafValues></_>
        <_>
          <internalNodes>
            0 -1 5 -2.9032398015260696e-002</internalNodes>
          <leafValues>
            9.2633879184722900e-001 -9.3021959066390991e-001</leafValues></_></weakClassifiers></_>
    <!-- stage 1 -->
    <_>
      <maxWeakCount>2</maxWeakCount>
      <stageThreshold>-7.4462927877902985e-002</stageThreshold>
      <weakClassifiers>
        <_>
          <internalNodes>
            0 -1 15 -9.8780132830142975e-003</internalNodes>
          <leafValues>
            9.0909093618392944e-001 -8.8235294818878174e-001</leafValues></_>
        <_>
          <internalNodes>
            0 -1 14 2.1800119429826736e-002</internalNodes>
          <leafValues>
            -9.3038564920425415e-001 8.0788999795913696e-001</leafValues></_></weakClassifiers></_>
    <!-- stage 2 -->
    <_>
      <maxWeakCount>2</maxWeakCount>
      <stageThreshold>1.2620374560356140e-001</stageThreshold>
      <weakClassifiers>
        <_>
          <internalNodes>
            0 -1 2 -3.6497406661510468e-002</internalNodes>
          <leafValues>
            8.6046510934829712e-001 -8.0769228935241699e-001</leafValues></_>
        <_>
          <internalNodes>
            0 -1 10 1.4124812558293343e-002</internalNodes>
          <leafValues>
            -7.3426139354705811e-001 9.6337461471557617e-001</leafValues></_></weakClassifiers></_>
    <!-- stage 3 -->
    <_>
      <maxWeakCount>2</maxWeakCount>
      <stageThreshold>8.7495878338813782e-002</stageThreshold>
      <weakClassifiers>
        <_>
          <internalNodes>
            0 -1 0 3.6323070526123047e-002</internalNodes>
          <leafValues>
            -7.5438594818115234e-001 1.</leafValues></_>
        <_>
          <internalNodes>
            0 -1 13 3.9126954972743988e-002</internalNodes>
          <leafValues>
            -8.6997848749160767e-001 8.4188187122344971e-001</leafValues></_></weakClassifiers></_>
    <!-- stage 4 -->
    <_>
      <maxWeakCount>3</maxWeakCount>
      <stageThreshold>-7.6287168264389038e-001</stageThreshold>
      <weakClassifiers>
        <_>
          <internalNodes>
            0 -1 6 -1.4161935076117516e-002</internalNodes>
          <leafValues>
            9.4594591856002808e-001 -6.8965518474578857e-001</leafValues></_>
        <_>
          <internalNodes>
            0 -1 17 -1.6020842595025897e-003</internalNodes>
          <leafValues>
            8.3331888914108276e-001 -7.0161277055740356e-001</leafValues></_>
        <_>
          <internalNodes>
            0 -1 11 -5.0945738330483437e-003</internalNodes>
          <leafValues>
            6.2839627265930176e-001 -1.</leafValues></_></weakClassifiers></_>
    <!-- stage 5 -->
    <_>
      <maxWeakCount>2</maxWeakCount>
      <stageThreshold>8.5122957825660706e-002</stageThreshold>
      <weakClassifiers>
        <_>
          <internalNodes>
            0 -1 7 -2.7729659341275692e-003</internalNodes>
          <leafValues>
            1. -7.8571426868438721e-001</leafValues></_>
        <_>
          <internalNodes>
            0 -1 1 -5.2184943342581391e-004</internalNodes>
          <leafValues>
            8.7083721160888672e-001 -8.9998823404312134e-001</leafValues></_></weakClassifiers></_>
    <!-- stage 6 -->
    <_>
      <maxWeakCount>2</maxWeakCount>
      <stageThreshold>6.6691890358924866e-002</stageThreshold>
      <weakClassifiers>
        <_>
          <internalNodes>
            0 -1 18 7.7473255805671215e-004</internalNodes>
          <leafValues>
            -7.2413790225982666e-001 1.</leafValues></_>
        <_>
          <internalNodes>
            0 -1 4 1.0985906235873699e-002</internalNodes>
          <leafValues>
            -9.3330812454223633e-001 8.1984221935272217e-001</leafValues></_></weakClassifiers></_>
    <!-- stage 7 -->
    <_>
      <maxWeakCount>2</maxWeakCount>
      <stageThreshold>-1.4581535756587982e-001</stageThreshold>
      <weakClassifiers>
        <_>
          <internalNodes>
            0 -1 9 6.1414409428834915e-003</internalNodes>
          <leafValues>
            -9.1836732625961304e-001 8.6956518888473511e-001</leafValues></_>
        <_>
          <internalNodes>
            0 -1 12 4.3314462527632713e-003</internalNodes>
          <leafValues>
            -8.9685750007629395e-001 7.7255195379257202e-001</leafValues></_></weakClassifiers></_>
    <!-- stage 8 -->
    <_>
      <maxWeakCount>1</maxWeakCount>
      <stageThreshold>7.6470589637756348e-001</stageThreshold>
      <weakClassifiers>
        <_>
          <internalNodes>
            0 -1 16 -4.5361844822764397e-003</internalNodes>
          <leafValues>
            -1. 7.6470589637756348e-001</leafValues></_></weakClassifiers></_>
    <!-- stage 9 -->
    <_>
      <maxWeakCount>1</maxWeakCount>
      <stageThreshold>1.</stageThreshold>
      <weakClassifiers>
        <_>
          <internalNodes>
            0 -1 8 2.5954307988286018e-002</internalNodes>
          <leafValues>
            1. -1.</leafValues></_></weakClassifiers></_></stages>
  <features>
    <_>
      <rects>
        <_>
          0 1 16 6 -1.</_>
        <_>
          0 1 8 3 2.</_>
        <_>
          8 4 8 3 2.</_></rects>
      <tilted>0</tilted></_>
    <_>
      <rects>
        <_>
          0 12 6 4 -1.</_>
        <_>
          0 12 3 2 2.</_>
        <_>
          3 14 3 2 2.</_></rects>
      <tilted>0</tilted></_>
    <_>
      <rects>
        <_>
          0 16 12 6 -1.</_>
        <_>
          0 16 6 3 2.</_>
        <_>
          6 19 6 3 2.</_></rects>
      <tilted>0</tilted></_>
    <_>
      <rects>
        <_>
          1 10 6 2 -1.</_>
        <_>
          4 10 3 2 2.</_></rects>
      <tilted>0</tilted></_>
    <_>
      <rects>
        <_>
          1 10 6 5 -1.</_>
        <_>
          4 10 3 5 2.</_></rects>
      <tilted>0</tilted></_>
    <_>
      <rects>
        <_>
          1 17 14 6 -1.</_>
        <_>
          1 17 7 3 2.</_>
        <_>
          8 20 7 3 2.</_></rects>
      <tilted>0</tilted></_>
    <_>
      <rects>
        <_>
          3 2 18 1 -1.</_>
        <_>
          9 2 6 1 3.</_></rects>
      <tilted>0</tilted></_>
    <_>
      <rects>
        <_>
          4 11 6 1 -1.</_>
        <_>
          7 11 3 1 2.</_></rects>
      <tilted>0</tilted></_>
    <_>
      <rects>
        <_>
          5 2 9 6 -1.</_>
        <_>
          8 2 3 6 3.</_></rects>
      <tilted>0</tilted></_>
    <_>
      <rects>
        <_>
          5 14 6 6 -1.</_>
        <_>
          5 14 3 3 2.</_>
        <_>
          8 17 3 3 2.</_></rects>
      <tilted>0</tilted></_>
    <_>
      <rects>
        <_>
          7 3 3 6 -1.</_>
        <_>
          7 5 3 2 3.</_></rects>
      <tilted>0</tilted></_>
    <_>
      <rects>
        <_>
          7 14 12 6 -1.</_>
        <_>
          13 14 6 6 2.</_></rects>
      <tilted>0</tilted></_>
    <_>
      <rects>
        <_>
          7 16 6 5 -1.</_>
        <_>
          10 16 3 5 2.</_></rects>
      <tilted>0</tilted></_>
    <_>
      <rects>
        <_>
          8 15 8 6 -1.</_>
        <_>
          8 17 8 2 3.</_></rects>
      <tilted>0</tilted></_>
    <_>
      <rects>
        <_>
          9 4 10 10 -1.</_>
        <_>
          9 4 5 5 2.</_>
        <_>
          14 9 5 5 2.</_></rects>
      <tilted>0</tilted></_>
    <_>
      <rects>
        <_>
          10 17 10 2 -1.</_>
        <_>
          15 17 5 2 2.</_></rects>
      <tilted>0</tilted></_>
    <_>
      <rects>
        <_>
          14 3 2 16 -1.</_>
        <_>
          14 11 2 8 2.</_></rects>
      <tilted>0</tilted></_>
    <_>
      <rects>
        <_>
          14 11 1 6 -1.</_>
        <_>
          14 14 1 3 2.</_></rects>
      <tilted>0</tilted></_>
    <_>
      <rects>
        <_>
          18 15 2 4 -1.</_>
        <_>
          18 15 1 2 2.</_>
        <_>
          19 17 1 2 2.</_></rects>
      <tilted>0</tilted></_></features></cascade>
</opencv_storage>
