<?xml version="1.0"?>
<opencv_storage>
<cascade>
  <stageType>BOOST</stageType>
  <featureType>HAAR</featureType>
  <height>24</height>
  <width>24</width>
  <stageParams>
    <boostType>GAB</boostType>
    <minHitRate>9.9500000476837158e-001</minHitRate>
    <maxFalseAlarm>5.0000000000000000e-001</maxFalseAlarm>
    <weightTrimRate>9.4999998807907104e-001</weightTrimRate>
    <maxDepth>1</maxDepth>
    <maxWeakCount>100</maxWeakCount></stageParams>
  <featureParams>
    <maxCatCount>0</maxCatCount>
    <featSize>1</featSize>
    <mode>BASIC</mode></featureParams>
  <stageNum>7</stageNum>
  <stages>
    <!-- stage 0 -->
    <_>
      <maxWeakCount>2</maxWeakCount>
      <stageThreshold>-2.1141640841960907e-001</stageThreshold>
      <weakClassifiers>
        <_>
          <internalNodes>
            0 -1 17 -4.7358471900224686e-002</internalNodes>
          <leafValues>
            8.8844621181488037e-001 -9.5634919404983521e-001</leafValues></_>
        <_>
          <internalNodes>
            0 -1 23 1.8235962837934494e-002</internalNodes>
          <leafValues>
            -9.2859894037246704e-001 7.4493277072906494e-001</leafValues></_></weakClassifiers></_>
    <!-- stage 1 -->
    <_>
      <maxWeakCount>3</maxWeakCount>
      <stageThreshold>-1.1034464836120605e+000</stageThreshold>
      <weakClassifiers>
        <_>
          <internalNodes>
            0 -1 5 -2.5949528440833092e-002</internalNodes>
          <leafValues>
            8.4955751895904541e-001 -9.0319460630416870e-001</leafValues></_>
        <_>
          <internalNodes>
            0 -1 16 -1.4069064520299435e-002</internalNodes>
          <leafValues>
            7.6913338899612427e-001 -7.6696687936782837e-001</leafValues></_>
        <_>
          <internalNodes>
            0 -1 19 1.0228445753455162e-003</internalNodes>
          <leafValues>
            -9.7315829992294312e-001 5.6671494245529175e-001</leafValues></_></weakClassifiers></_>
    <!-- stage 2 -->
    <_>
      <maxWeakCount>3</maxWeakCount>
      <stageThreshold>-1.1288725137710571e+000</stageThreshold>
      <weakClassifiers>
        <_>
          <internalNodes>
            0 -1 4 3.1314365565776825e-002</internalNodes>
          <leafValues>
            -8.7896251678466797e-001 7.9816514253616333e-001</leafValues></_>
        <_>
          <internalNodes>
            0 -1 3 1.6994250938296318e-002</internalNodes>
          <leafValues>
            -8.6280930042266846e-001 5.9897577762603760e-001</leafValues></_>
        <_>
          <internalNodes>
            0 -1 15 1.6974594444036484e-002</internalNodes>
          <leafValues>
            -7.5986707210540771e-001 6.1289930343627930e-001</leafValues></_></weakClassifiers></_>
    <!-- stage 3 -->
    <_>
      <maxWeakCount>3</maxWeakCount>
      <stageThreshold>-9.8174035549163818e-001</stageThreshold>
      <weakClassifiers>
        <_>
          <internalNodes>
            0 -1 21 -1.0972758755087852e-002</internalNodes>
          <leafValues>
            7.6525819301605225e-001 -8.6424475908279419e-001</leafValues></_>
        <_>
          <internalNodes>
            0 -1 1 1.5571238473057747e-002</internalNodes>
          <leafValues>
            -7.5658363103866577e-001 7.4119645357131958e-001</leafValues></_>
        <_>
          <internalNodes>
            0 -1 11 4.1919462382793427e-003</internalNodes>
          <leafValues>
            -7.2370415925979614e-001 6.3908803462982178e-001</leafValues></_></weakClassifiers></_>
    <!-- stage 4 -->
    <_>
      <maxWeakCount>4</maxWeakCount>
      <stageThreshold>-1.4905503988265991e+000</stageThreshold>
      <weakClassifiers>
        <_>
          <internalNodes>
            0 -1 8 -1.4792901463806629e-002</internalNodes>
          <leafValues>
            6.0173159837722778e-001 -8.5603111982345581e-001</leafValues></_>
        <_>
          <internalNodes>
            0 -1 20 9.2296116054058075e-003</internalNodes>
          <leafValues>
            -7.7271312475204468e-001 5.7186150550842285e-001</leafValues></_>
        <_>
          <internalNodes>
            0 -1 16 -1.5054745599627495e-002</internalNodes>
          <leafValues>
            6.5163135528564453e-001 -6.4869612455368042e-001</leafValues></_>
        <_>
          <internalNodes>
            0 -1 6 -2.0056408829987049e-003</internalNodes>
          <leafValues>
            8.0785018205642700e-001 -5.1343756914138794e-001</leafValues></_></weakClassifiers></_>
    <!-- stage 5 -->
    <_>
      <maxWeakCount>5</maxWeakCount>
      <stageThreshold>-1.4011889696121216e+000</stageThreshold>
      <weakClassifiers>
        <_>
          <internalNodes>
            0 -1 18 -2.6593985036015511e-002</internalNodes>
          <leafValues>
            5.5454546213150024e-001 -8.3060634136199951e-001</leafValues></_>
        <_>
          <internalNodes>
            0 -1 0 -1.5390399843454361e-002</internalNodes>
          <leafValues>
            6.3917988538742065e-001 -6.8554508686065674e-001</leafValues></_>
        <_>
          <internalNodes>
            0 -1 13 1.2926317751407623e-002</internalNodes>
          <leafValues>
            -8.0501568317413330e-001 4.4882401823997498e-001</leafValues></_>
        <_>
          <internalNodes>
            0 -1 10 3.1413380056619644e-003</internalNodes>
          <leafValues>
            -6.6760927438735962e-001 4.7945612668991089e-001</leafValues></_>
        <_>
          <internalNodes>
            0 -1 22 2.5873733684420586e-003</internalNodes>
          <leafValues>
            -7.3831713199615479e-001 4.4052198529243469e-001</leafValues></_></weakClassifiers></_>
    <!-- stage 6 -->
    <_>
      <maxWeakCount>6</maxWeakCount>
      <stageThreshold>-1.4254271984100342e+000</stageThreshold>
      <weakClassifiers>
        <_>
          <internalNodes>
            0 -1 14 2.4002803489565849e-002</internalNodes>
          <leafValues>
            -8.1509435176849365e-001 6.1809045076370239e-001</leafValues></_>
        <_>
          <internalNodes>
            0 -1 24 6.0900775715708733e-003</internalNodes>
          <leafValues>
            -6.4958387613296509e-001 6.3975888490676880e-001</leafValues></_>
        <_>
          <internalNodes>
            0 -1 12 3.8570268079638481e-003</internalNodes>
          <leafValues>
            -6.0318678617477417e-001 5.6830918788909912e-001</leafValues></_>
        <_>
          <internalNodes>
            0 -1 9 2.3746702820062637e-002</internalNodes>
          <leafValues>
            -4.4561174511909485e-001 6.7864114046096802e-001</leafValues></_>
        <_>
          <internalNodes>
            0 -1 7 -2.9737271368503571e-002</internalNodes>
          <leafValues>
            -1. 3.2589730620384216e-001</leafValues></_>
        <_>
          <internalNodes>
            0 -1 2 -2.0959699526429176e-002</internalNodes>
          <leafValues>
            9.3814802169799805e-001 -3.6210057139396667e-001</leafValues></_></weakClassifiers></_></stages>
  <features>
    <_>
      <rects>
        <_>
          0 12 6 4 -1.</_>
        <_>
          2 12 2 4 3.</_></rects>
      <tilted>0</tilted></_>
    <_>
      <rects>
        <_>
          2 3 4 12 -1.</_>
        <_>
          2 3 2 6 2.</_>
        <_>
          4 9 2 6 2.</_></rects>
      <tilted>0</tilted></_>
    <_>
      <rects>
        <_>
          2 16 6 4 -1.</_>
        <_>
          5 16 3 4 2.</_></rects>
      <tilted>0</tilted></_>
    <_>
      <rects>
        <_>
          3 2 12 6 -1.</_>
        <_>
          3 2 6 3 2.</_>
        <_>
          9 5 6 3 2.</_></rects>
      <tilted>0</tilted></_>
    <_>
      <rects>
        <_>
          3 9 6 7 -1.</_>
        <_>
          5 9 2 7 3.</_></rects>
      <tilted>0</tilted></_>
    <_>
      <rects>
        <_>
          5 5 6 8 -1.</_>
        <_>
          5 5 3 4 2.</_>
        <_>
          8 9 3 4 2.</_></rects>
      <tilted>0</tilted></_>
    <_>
      <rects>
        <_>
          5 15 2 6 -1.</_>
        <_>
          5 15 1 3 2.</_>
        <_>
          6 18 1 3 2.</_></rects>
      <tilted>0</tilted></_>
    <_>
      <rects>
        <_>
          6 6 13 12 -1.</_>
        <_>
          6 12 13 6 2.</_></rects>
      <tilted>0</tilted></_>
    <_>
      <rects>
        <_>
          6 13 6 3 -1.</_>
        <_>
          8 13 2 3 3.</_></rects>
      <tilted>0</tilted></_>
    <_>
      <rects>
        <_>
          7 3 10 4 -1.</_>
        <_>
          7 5 10 2 2.</_></rects>
      <tilted>0</tilted></_>
    <_>
      <rects>
        <_>
          7 6 6 3 -1.</_>
        <_>
          9 6 2 3 3.</_></rects>
      <tilted>0</tilted></_>
    <_>
      <rects>
        <_>
          8 6 9 3 -1.</_>
        <_>
          8 7 9 1 3.</_></rects>
      <tilted>0</tilted></_>
    <_>
      <rects>
        <_>
          8 10 4 4 -1.</_>
        <_>
          8 10 2 2 2.</_>
        <_>
          10 12 2 2 2.</_></rects>
      <tilted>0</tilted></_>
    <_>
      <rects>
        <_>
          8 15 9 4 -1.</_>
        <_>
          11 15 3 4 3.</_></rects>
      <tilted>0</tilted></_>
    <_>
      <rects>
        <_>
          8 15 4 6 -1.</_>
        <_>
          8 17 4 2 3.</_></rects>
      <tilted>0</tilted></_>
    <_>
      <rects>
        <_>
          8 17 16 4 -1.</_>
        <_>
          8 17 8 2 2.</_>
        <_>
          16 19 8 2 2.</_></rects>
      <tilted>0</tilted></_>
    <_>
      <rects>
        <_>
          10 3 12 4 -1.</_>
        <_>
          10 3 6 2 2.</_>
        <_>
          16 5 6 2 2.</_></rects>
      <tilted>0</tilted></_>
    <_>
      <rects>
        <_>
          10 9 10 10 -1.</_>
        <_>
          10 9 5 5 2.</_>
        <_>
          15 14 5 5 2.</_></rects>
      <tilted>0</tilted></_>
    <_>
      <rects>
        <_>
          11 7 4 6 -1.</_>
        <_>
          11 9 4 2 3.</_></rects>
      <tilted>0</tilted></_>
    <_>
      <rects>
        <_>
          12 12 1 4 -1.</_>
        <_>
          12 14 1 2 2.</_></rects>
      <tilted>0</tilted></_>
    <_>
      <rects>
        <_>
          12 12 9 1 -1.</_>
        <_>
          15 12 3 1 3.</_></rects>
      <tilted>0</tilted></_>
    <_>
      <rects>
        <_>
          13 7 2 6 -1.</_>
        <_>
          13 9 2 2 3.</_></rects>
      <tilted>0</tilted></_>
    <_>
      <rects>
        <_>
          14 13 6 2 -1.</_>
        <_>
          16 13 2 2 3.</_></rects>
      <tilted>0</tilted></_>
    <_>
      <rects>
        <_>
          16 10 6 12 -1.</_>
        <_>
          16 10 3 6 2.</_>
        <_>
          19 16 3 6 2.</_></rects>
      <tilted>0</tilted></_>
    <_>
      <rects>
        <_>
          20 6 2 13 -1.</_>
        <_>
          21 6 1 13 2.</_></rects>
      <tilted>0</tilted></_></features></cascade>
</opencv_storage>
