<?xml version="1.0"?>
<opencv_storage>
<cascade>
  <stageType>BOOST</stageType>
  <featureType>HAAR</featureType>
  <height>24</height>
  <width>24</width>
  <stageParams>
    <boostType>GAB</boostType>
    <minHitRate>9.9500000476837158e-001</minHitRate>
    <maxFalseAlarm>5.0000000000000000e-001</maxFalseAlarm>
    <weightTrimRate>9.4999998807907104e-001</weightTrimRate>
    <maxDepth>1</maxDepth>
    <maxWeakCount>100</maxWeakCount></stageParams>
  <featureParams>
    <maxCatCount>0</maxCatCount>
    <featSize>1</featSize>
    <mode>BASIC</mode></featureParams>
  <stageNum>10</stageNum>
  <stages>
    <!-- stage 0 -->
    <_>
      <maxWeakCount>3</maxWeakCount>
      <stageThreshold>-1.1877615451812744e+000</stageThreshold>
      <weakClassifiers>
        <_>
          <internalNodes>
            0 -1 2 -4.2560841888189316e-002</internalNodes>
          <leafValues>
            7.5000000000000000e-001 -9.6359962224960327e-001</leafValues></_>
        <_>
          <internalNodes>
            0 -1 21 -9.4025358557701111e-003</internalNodes>
          <leafValues>
            5.7812571525573730e-001 -9.3631905317306519e-001</leafValues></_>
        <_>
          <internalNodes>
            0 -1 30 -7.8968442976474762e-003</internalNodes>
          <leafValues>
            8.0951446294784546e-001 -8.0228769779205322e-001</leafValues></_></weakClassifiers></_>
    <!-- stage 1 -->
    <_>
      <maxWeakCount>3</maxWeakCount>
      <stageThreshold>-1.2373971939086914e+000</stageThreshold>
      <weakClassifiers>
        <_>
          <internalNodes>
            0 -1 5 -3.0105239152908325e-001</internalNodes>
          <leafValues>
            5.8620691299438477e-001 -9.2517691850662231e-001</leafValues></_>
        <_>
          <internalNodes>
            0 -1 18 1.7731631174683571e-002</internalNodes>
          <leafValues>
            -8.5525459051132202e-001 5.2114152908325195e-001</leafValues></_>
        <_>
          <internalNodes>
            0 -1 4 -5.4227439686655998e-003</internalNodes>
          <leafValues>
            5.4303431510925293e-001 -8.0707669258117676e-001</leafValues></_></weakClassifiers></_>
    <!-- stage 2 -->
    <_>
      <maxWeakCount>3</maxWeakCount>
      <stageThreshold>-1.1409935951232910e+000</stageThreshold>
      <weakClassifiers>
        <_>
          <internalNodes>
            0 -1 33 5.3282596170902252e-002</internalNodes>
          <leafValues>
            -8.4235519170761108e-001 6.4285713434219360e-001</leafValues></_>
        <_>
          <internalNodes>
            0 -1 12 1.1074703186750412e-002</internalNodes>
          <leafValues>
            -9.4657951593399048e-001 3.4249225258827209e-001</leafValues></_>
        <_>
          <internalNodes>
            0 -1 16 4.8023085109889507e-003</internalNodes>
          <leafValues>
            -6.4113068580627441e-001 7.8813934326171875e-001</leafValues></_></weakClassifiers></_>
    <!-- stage 3 -->
    <_>
      <maxWeakCount>3</maxWeakCount>
      <stageThreshold>-1.0048528909683228e+000</stageThreshold>
      <weakClassifiers>
        <_>
          <internalNodes>
            0 -1 0 -9.7201727330684662e-002</internalNodes>
          <leafValues>
            6.6279071569442749e-001 -8.5128694772720337e-001</leafValues></_>
        <_>
          <internalNodes>
            0 -1 28 6.5735648386180401e-003</internalNodes>
          <leafValues>
            -8.8877689838409424e-001 4.9286571145057678e-001</leafValues></_>
        <_>
          <internalNodes>
            0 -1 22 -1.0327663272619247e-002</internalNodes>
          <leafValues>
            7.3521089553833008e-001 -6.1636203527450562e-001</leafValues></_></weakClassifiers></_>
    <!-- stage 4 -->
    <_>
      <maxWeakCount>3</maxWeakCount>
      <stageThreshold>-1.2832504510879517e+000</stageThreshold>
      <weakClassifiers>
        <_>
          <internalNodes>
            0 -1 14 -5.5743297562003136e-003</internalNodes>
          <leafValues>
            3.8834950327873230e-001 -8.4630542993545532e-001</leafValues></_>
        <_>
          <internalNodes>
            0 -1 24 -1.4732545241713524e-003</internalNodes>
          <leafValues>
            3.4706816077232361e-001 -8.7650120258331299e-001</leafValues></_>
        <_>
          <internalNodes>
            0 -1 15 6.4997724257409573e-004</internalNodes>
          <leafValues>
            -7.8401321172714233e-001 4.5680746436119080e-001</leafValues></_></weakClassifiers></_>
    <!-- stage 5 -->
    <_>
      <maxWeakCount>3</maxWeakCount>
      <stageThreshold>-1.1533895730972290e+000</stageThreshold>
      <weakClassifiers>
        <_>
          <internalNodes>
            0 -1 25 1.2562140822410583e-002</internalNodes>
          <leafValues>
            -7.9595589637756348e-001 6.5413534641265869e-001</leafValues></_>
        <_>
          <internalNodes>
            0 -1 13 -2.6410128921270370e-003</internalNodes>
          <leafValues>
            3.9028769731521606e-001 -7.7376884222030640e-001</leafValues></_>
        <_>
          <internalNodes>
            0 -1 6 -1.3104282319545746e-002</internalNodes>
          <leafValues>
            4.3737354874610901e-001 -7.4772143363952637e-001</leafValues></_></weakClassifiers></_>
    <!-- stage 6 -->
    <_>
      <maxWeakCount>4</maxWeakCount>
      <stageThreshold>-1.2394782304763794e+000</stageThreshold>
      <weakClassifiers>
        <_>
          <internalNodes>
            0 -1 10 -7.3743835091590881e-002</internalNodes>
          <leafValues>
            7.0542633533477783e-001 -7.9670327901840210e-001</leafValues></_>
        <_>
          <internalNodes>
            0 -1 29 -2.2278161719441414e-002</internalNodes>
          <leafValues>
            6.9961273670196533e-001 -5.8631581068038940e-001</leafValues></_>
        <_>
          <internalNodes>
            0 -1 1 -5.4762370884418488e-002</internalNodes>
          <leafValues>
            7.5170034170150757e-001 -5.8608478307723999e-001</leafValues></_>
        <_>
          <internalNodes>
            0 -1 11 5.8527793735265732e-003</internalNodes>
          <leafValues>
            -4.4491803646087646e-001 7.2962558269500732e-001</leafValues></_></weakClassifiers></_>
    <!-- stage 7 -->
    <_>
      <maxWeakCount>4</maxWeakCount>
      <stageThreshold>-9.1849482059478760e-001</stageThreshold>
      <weakClassifiers>
        <_>
          <internalNodes>
            0 -1 8 2.7879778295755386e-002</internalNodes>
          <leafValues>
            -8.2290661334991455e-001 4.1758242249488831e-001</leafValues></_>
        <_>
          <internalNodes>
            0 -1 23 -1.4269770123064518e-002</internalNodes>
          <leafValues>
            4.4784417748451233e-001 -7.3951935768127441e-001</leafValues></_>
        <_>
          <internalNodes>
            0 -1 9 5.6251250207424164e-003</internalNodes>
          <leafValues>
            -9.5379203557968140e-001 3.3840745687484741e-001</leafValues></_>
        <_>
          <internalNodes>
            0 -1 19 -1.5865918248891830e-004</internalNodes>
          <leafValues>
            4.1035965085029602e-001 -7.5748902559280396e-001</leafValues></_></weakClassifiers></_>
    <!-- stage 8 -->
    <_>
      <maxWeakCount>4</maxWeakCount>
      <stageThreshold>-1.7735961675643921e+000</stageThreshold>
      <weakClassifiers>
        <_>
          <internalNodes>
            0 -1 32 -6.6548481583595276e-002</internalNodes>
          <leafValues>
            5.9259259700775146e-001 -8.2625120878219604e-001</leafValues></_>
        <_>
          <internalNodes>
            0 -1 26 1.2177928350865841e-002</internalNodes>
          <leafValues>
            -6.3839417695999146e-001 4.8071178793907166e-001</leafValues></_>
        <_>
          <internalNodes>
            0 -1 7 1.6163688153028488e-002</internalNodes>
          <leafValues>
            -8.8917917013168335e-001 2.9914131760597229e-001</leafValues></_>
        <_>
          <internalNodes>
            0 -1 17 -4.1484180837869644e-003</internalNodes>
          <leafValues>
            4.1961222887039185e-001 -6.0809212923049927e-001</leafValues></_></weakClassifiers></_>
    <!-- stage 9 -->
    <_>
      <maxWeakCount>5</maxWeakCount>
      <stageThreshold>-1.4798609018325806e+000</stageThreshold>
      <weakClassifiers>
        <_>
          <internalNodes>
            0 -1 31 -8.6650088429450989e-002</internalNodes>
          <leafValues>
            7.0312500000000000e-001 -7.9505944252014160e-001</leafValues></_>
        <_>
          <internalNodes>
            0 -1 20 -9.3459188938140869e-003</internalNodes>
          <leafValues>
            4.3650400638580322e-001 -6.2196815013885498e-001</leafValues></_>
        <_>
          <internalNodes>
            0 -1 27 -1.7726441146805882e-003</internalNodes>
          <leafValues>
            3.2080131769180298e-001 -9.3159025907516479e-001</leafValues></_>
        <_>
          <internalNodes>
            0 -1 3 -1.1723390780389309e-003</internalNodes>
          <leafValues>
            4.1758036613464355e-001 -5.9937465190887451e-001</leafValues></_>
        <_>
          <internalNodes>
            0 -1 34 5.4935699154157192e-005</internalNodes>
          <leafValues>
            -5.9436994791030884e-001 4.0965950489044189e-001</leafValues></_></weakClassifiers></_></stages>
  <features>
    <_>
      <rects>
        <_>
          0 2 6 14 -1.</_>
        <_>
          3 2 3 14 2.</_></rects>
      <tilted>0</tilted></_>
    <_>
      <rects>
        <_>
          0 9 6 14 -1.</_>
        <_>
          3 9 3 14 2.</_></rects>
      <tilted>0</tilted></_>
    <_>
      <rects>
        <_>
          0 10 18 3 -1.</_>
        <_>
          6 10 6 3 3.</_></rects>
      <tilted>0</tilted></_>
    <_>
      <rects>
        <_>
          0 17 8 4 -1.</_>
        <_>
          0 17 4 2 2.</_>
        <_>
          4 19 4 2 2.</_></rects>
      <tilted>0</tilted></_>
    <_>
      <rects>
        <_>
          1 4 6 7 -1.</_>
        <_>
          3 4 2 7 3.</_></rects>
      <tilted>0</tilted></_>
    <_>
      <rects>
        <_>
          3 0 10 24 -1.</_>
        <_>
          3 8 10 8 3.</_></rects>
      <tilted>0</tilted></_>
    <_>
      <rects>
        <_>
          3 5 8 8 -1.</_>
        <_>
          3 5 4 4 2.</_>
        <_>
          7 9 4 4 2.</_></rects>
      <tilted>0</tilted></_>
    <_>
      <rects>
        <_>
          4 0 14 16 -1.</_>
        <_>
          4 0 7 8 2.</_>
        <_>
          11 8 7 8 2.</_></rects>
      <tilted>0</tilted></_>
    <_>
      <rects>
        <_>
          4 20 11 4 -1.</_>
        <_>
          4 22 11 2 2.</_></rects>
      <tilted>0</tilted></_>
    <_>
      <rects>
        <_>
          5 9 3 10 -1.</_>
        <_>
          5 14 3 5 2.</_></rects>
      <tilted>0</tilted></_>
    <_>
      <rects>
        <_>
          6 0 10 6 -1.</_>
        <_>
          6 2 10 2 3.</_></rects>
      <tilted>0</tilted></_>
    <_>
      <rects>
        <_>
          6 5 8 2 -1.</_>
        <_>
          6 6 8 1 2.</_></rects>
      <tilted>0</tilted></_>
    <_>
      <rects>
        <_>
          6 13 6 6 -1.</_>
        <_>
          6 16 6 3 2.</_></rects>
      <tilted>0</tilted></_>
    <_>
      <rects>
        <_>
          6 17 6 4 -1.</_>
        <_>
          8 17 2 4 3.</_></rects>
      <tilted>0</tilted></_>
    <_>
      <rects>
        <_>
          6 18 6 3 -1.</_>
        <_>
          8 18 2 3 3.</_></rects>
      <tilted>0</tilted></_>
    <_>
      <rects>
        <_>
          7 5 2 3 -1.</_>
        <_>
          8 5 1 3 2.</_></rects>
      <tilted>0</tilted></_>
    <_>
      <rects>
        <_>
          9 4 1 6 -1.</_>
        <_>
          9 6 1 2 3.</_></rects>
      <tilted>0</tilted></_>
    <_>
      <rects>
        <_>
          9 12 3 6 -1.</_>
        <_>
          9 14 3 2 3.</_></rects>
      <tilted>0</tilted></_>
    <_>
      <rects>
        <_>
          10 4 8 8 -1.</_>
        <_>
          10 4 4 4 2.</_>
        <_>
          14 8 4 4 2.</_></rects>
      <tilted>0</tilted></_>
    <_>
      <rects>
        <_>
          10 5 2 8 -1.</_>
        <_>
          11 5 1 8 2.</_></rects>
      <tilted>0</tilted></_>
    <_>
      <rects>
        <_>
          10 6 4 6 -1.</_>
        <_>
          10 8 4 2 3.</_></rects>
      <tilted>0</tilted></_>
    <_>
      <rects>
        <_>
          10 15 9 6 -1.</_>
        <_>
          13 15 3 6 3.</_></rects>
      <tilted>0</tilted></_>
    <_>
      <rects>
        <_>
          11 1 3 6 -1.</_>
        <_>
          11 3 3 2 3.</_></rects>
      <tilted>0</tilted></_>
    <_>
      <rects>
        <_>
          11 11 6 8 -1.</_>
        <_>
          11 11 3 4 2.</_>
        <_>
          14 15 3 4 2.</_></rects>
      <tilted>0</tilted></_>
    <_>
      <rects>
        <_>
          11 17 4 3 -1.</_>
        <_>
          13 17 2 3 2.</_></rects>
      <tilted>0</tilted></_>
    <_>
      <rects>
        <_>
          12 5 6 4 -1.</_>
        <_>
          12 5 3 2 2.</_>
        <_>
          15 7 3 2 2.</_></rects>
      <tilted>0</tilted></_>
    <_>
      <rects>
        <_>
          13 4 4 8 -1.</_>
        <_>
          13 4 2 4 2.</_>
        <_>
          15 8 2 4 2.</_></rects>
      <tilted>0</tilted></_>
    <_>
      <rects>
        <_>
          14 9 2 12 -1.</_>
        <_>
          14 13 2 4 3.</_></rects>
      <tilted>0</tilted></_>
    <_>
      <rects>
        <_>
          14 15 6 5 -1.</_>
        <_>
          16 15 2 5 3.</_></rects>
      <tilted>0</tilted></_>
    <_>
      <rects>
        <_>
          15 7 6 6 -1.</_>
        <_>
          17 7 2 6 3.</_></rects>
      <tilted>0</tilted></_>
    <_>
      <rects>
        <_>
          15 7 6 4 -1.</_>
        <_>
          18 7 3 4 2.</_></rects>
      <tilted>0</tilted></_>
    <_>
      <rects>
        <_>
          17 5 6 13 -1.</_>
        <_>
          19 5 2 13 3.</_></rects>
      <tilted>0</tilted></_>
    <_>
      <rects>
        <_>
          17 6 6 15 -1.</_>
        <_>
          19 6 2 15 3.</_></rects>
      <tilted>0</tilted></_>
    <_>
      <rects>
        <_>
          18 3 6 8 -1.</_>
        <_>
          21 3 3 8 2.</_></rects>
      <tilted>0</tilted></_>
    <_>
      <rects>
        <_>
          21 20 2 2 -1.</_>
        <_>
          21 21 2 1 2.</_></rects>
      <tilted>0</tilted></_></features></cascade>
</opencv_storage>
