<?xml version="1.0"?>
<opencv_storage>
<cascade>
  <stageType>BOOST</stageType>
  <featureType>HAAR</featureType>
  <height>32</height>
  <width>32</width>
  <stageParams>
    <boostType>GAB</boostType>
    <minHitRate>9.9500000476837158e-001</minHitRate>
    <maxFalseAlarm>5.0000000000000000e-001</maxFalseAlarm>
    <weightTrimRate>9.4999998807907104e-001</weightTrimRate>
    <maxDepth>1</maxDepth>
    <maxWeakCount>100</maxWeakCount></stageParams>
  <featureParams>
    <maxCatCount>0</maxCatCount>
    <featSize>1</featSize>
    <mode>BASIC</mode></featureParams>
  <stageNum>5</stageNum>
  <stages>
    <!-- stage 0 -->
    <_>
      <maxWeakCount>3</maxWeakCount>
      <stageThreshold>-1.2198876142501831e+000</stageThreshold>
      <weakClassifiers>
        <_>
          <internalNodes>
            0 -1 3 5.7323656976222992e-002</internalNodes>
          <leafValues>
            -9.8605579137802124e-001 6.7567569017410278e-001</leafValues></_>
        <_>
          <internalNodes>
            0 -1 0 -4.9126133322715759e-002</internalNodes>
          <leafValues>
            7.8630685806274414e-001 -9.5068365335464478e-001</leafValues></_>
        <_>
          <internalNodes>
            0 -1 11 -4.0112966671586037e-003</internalNodes>
          <leafValues>
            7.3846334218978882e-001 -9.4487971067428589e-001</leafValues></_></weakClassifiers></_>
    <!-- stage 1 -->
    <_>
      <maxWeakCount>4</maxWeakCount>
      <stageThreshold>-2.2943949699401855e+000</stageThreshold>
      <weakClassifiers>
        <_>
          <internalNodes>
            0 -1 5 -3.9731327444314957e-002</internalNodes>
          <leafValues>
            7.6470589637756348e-001 -9.8508203029632568e-001</leafValues></_>
        <_>
          <internalNodes>
            0 -1 6 -3.5165347158908844e-002</internalNodes>
          <leafValues>
            8.8835328817367554e-001 -9.2609250545501709e-001</leafValues></_>
        <_>
          <internalNodes>
            0 -1 1 1.5728838741779327e-002</internalNodes>
          <leafValues>
            -9.3671661615371704e-001 4.9505576491355896e-001</leafValues></_>
        <_>
          <internalNodes>
            0 -1 10 -9.7757745534181595e-003</internalNodes>
          <leafValues>
            5.5349624156951904e-001 -9.5332390069961548e-001</leafValues></_></weakClassifiers></_>
    <!-- stage 2 -->
    <_>
      <maxWeakCount>3</maxWeakCount>
      <stageThreshold>-1.2644830942153931e+000</stageThreshold>
      <weakClassifiers>
        <_>
          <internalNodes>
            0 -1 12 1.3319326564669609e-002</internalNodes>
          <leafValues>
            -9.6404922008514404e-001 8.5714286565780640e-001</leafValues></_>
        <_>
          <internalNodes>
            0 -1 7 -6.6286162473261356e-003</internalNodes>
          <leafValues>
            6.2493884563446045e-001 -9.0475118160247803e-001</leafValues></_>
        <_>
          <internalNodes>
            0 -1 2 6.8657719530165195e-003</internalNodes>
          <leafValues>
            -9.2537271976470947e-001 6.5706413984298706e-001</leafValues></_></weakClassifiers></_>
    <!-- stage 3 -->
    <_>
      <maxWeakCount>2</maxWeakCount>
      <stageThreshold>-2.0368924736976624e-001</stageThreshold>
      <weakClassifiers>
        <_>
          <internalNodes>
            0 -1 9 -7.5925756245851517e-003</internalNodes>
          <leafValues>
            8.6956518888473511e-001 -9.6428573131561279e-001</leafValues></_>
        <_>
          <internalNodes>
            0 -1 8 1.0527916252613068e-002</internalNodes>
          <leafValues>
            -9.6424072980880737e-001 7.6059645414352417e-001</leafValues></_></weakClassifiers></_>
    <!-- stage 4 -->
    <_>
      <maxWeakCount>1</maxWeakCount>
      <stageThreshold>1.</stageThreshold>
      <weakClassifiers>
        <_>
          <internalNodes>
            0 -1 4 -2.3339956998825073e-002</internalNodes>
          <leafValues>
            -1. 1.</leafValues></_></weakClassifiers></_></stages>
  <features>
    <_>
      <rects>
        <_>
          0 23 18 6 -1.</_>
        <_>
          0 23 9 3 2.</_>
        <_>
          9 26 9 3 2.</_></rects>
      <tilted>0</tilted></_>
    <_>
      <rects>
        <_>
          1 12 8 8 -1.</_>
        <_>
          5 12 4 8 2.</_></rects>
      <tilted>0</tilted></_>
    <_>
      <rects>
        <_>
          1 16 8 3 -1.</_>
        <_>
          5 16 4 3 2.</_></rects>
      <tilted>0</tilted></_>
    <_>
      <rects>
        <_>
          2 1 16 8 -1.</_>
        <_>
          2 1 8 4 2.</_>
        <_>
          10 5 8 4 2.</_></rects>
      <tilted>0</tilted></_>
    <_>
      <rects>
        <_>
          2 10 25 8 -1.</_>
        <_>
          2 14 25 4 2.</_></rects>
      <tilted>0</tilted></_>
    <_>
      <rects>
        <_>
          2 12 6 18 -1.</_>
        <_>
          2 12 3 9 2.</_>
        <_>
          5 21 3 9 2.</_></rects>
      <tilted>0</tilted></_>
    <_>
      <rects>
        <_>
          3 15 6 14 -1.</_>
        <_>
          3 15 3 7 2.</_>
        <_>
          6 22 3 7 2.</_></rects>
      <tilted>0</tilted></_>
    <_>
      <rects>
        <_>
          3 22 8 4 -1.</_>
        <_>
          3 22 4 2 2.</_>
        <_>
          7 24 4 2 2.</_></rects>
      <tilted>0</tilted></_>
    <_>
      <rects>
        <_>
          7 5 15 5 -1.</_>
        <_>
          12 5 5 5 3.</_></rects>
      <tilted>0</tilted></_>
    <_>
      <rects>
        <_>
          13 23 12 4 -1.</_>
        <_>
          19 23 6 4 2.</_></rects>
      <tilted>0</tilted></_>
    <_>
      <rects>
        <_>
          17 4 14 6 -1.</_>
        <_>
          17 4 7 3 2.</_>
        <_>
          24 7 7 3 2.</_></rects>
      <tilted>0</tilted></_>
    <_>
      <rects>
        <_>
          17 14 2 10 -1.</_>
        <_>
          17 14 1 5 2.</_>
        <_>
          18 19 1 5 2.</_></rects>
      <tilted>0</tilted></_>
    <_>
      <rects>
        <_>
          24 18 4 10 -1.</_>
        <_>
          24 18 2 5 2.</_>
        <_>
          26 23 2 5 2.</_></rects>
      <tilted>0</tilted></_></features></cascade>
</opencv_storage>
