<?xml version="1.0"?>
<opencv_storage>
<cascade>
  <stageType>BOOST</stageType>
  <featureType>HAAR</featureType>
  <height>24</height>
  <width>24</width>
  <stageParams>
    <boostType>GAB</boostType>
    <minHitRate>9.9500000476837158e-001</minHitRate>
    <maxFalseAlarm>5.0000000000000000e-001</maxFalseAlarm>
    <weightTrimRate>9.4999998807907104e-001</weightTrimRate>
    <maxDepth>1</maxDepth>
    <maxWeakCount>100</maxWeakCount></stageParams>
  <featureParams>
    <maxCatCount>0</maxCatCount>
    <featSize>1</featSize>
    <mode>ALL</mode></featureParams>
  <stageNum>9</stageNum>
  <stages>
    <!-- stage 0 -->
    <_>
      <maxWeakCount>2</maxWeakCount>
      <stageThreshold>-6.5933507680892944e-001</stageThreshold>
      <weakClassifiers>
        <_>
          <internalNodes>
            0 -1 26 3.5129524767398834e-002</internalNodes>
          <leafValues>
            -9.5820593833923340e-001 3.9463600516319275e-001</leafValues></_>
        <_>
          <internalNodes>
            0 -1 15 1.2274277210235596e-001</internalNodes>
          <leafValues>
            -9.5371609926223755e-001 2.9887086153030396e-001</leafValues></_></weakClassifiers></_>
    <!-- stage 1 -->
    <_>
      <maxWeakCount>3</maxWeakCount>
      <stageThreshold>-1.8497643470764160e+000</stageThreshold>
      <weakClassifiers>
        <_>
          <internalNodes>
            0 -1 3 2.3893147706985474e-002</internalNodes>
          <leafValues>
            -9.4319397211074829e-001 -4.7619048506021500e-002</leafValues></_>
        <_>
          <internalNodes>
            0 -1 9 9.4304129015654325e-004</internalNodes>
          <leafValues>
            -9.4713020324707031e-001 2.0057825744152069e-001</leafValues></_>
        <_>
          <internalNodes>
            0 -1 6 -9.6194224897772074e-004</internalNodes>
          <leafValues>
            4.2310795187950134e-001 -8.5501503944396973e-001</leafValues></_></weakClassifiers></_>
    <!-- stage 2 -->
    <_>
      <maxWeakCount>4</maxWeakCount>
      <stageThreshold>-1.1980160474777222e+000</stageThreshold>
      <weakClassifiers>
        <_>
          <internalNodes>
            0 -1 13 -7.7377587556838989e-002</internalNodes>
          <leafValues>
            5.6190478801727295e-001 -8.6685550212860107e-001</leafValues></_>
        <_>
          <internalNodes>
            0 -1 12 1.1189702898263931e-002</internalNodes>
          <leafValues>
            -8.3446550369262695e-001 2.6829797029495239e-001</leafValues></_>
        <_>
          <internalNodes>
            0 -1 1 1.3398852199316025e-002</internalNodes>
          <leafValues>
            -9.3552452325820923e-001 3.5884019732475281e-001</leafValues></_>
        <_>
          <internalNodes>
            0 -1 30 1.0802260600030422e-002</internalNodes>
          <leafValues>
            -9.1563522815704346e-001 3.3606603741645813e-001</leafValues></_></weakClassifiers></_>
    <!-- stage 3 -->
    <_>
      <maxWeakCount>3</maxWeakCount>
      <stageThreshold>-1.4263864755630493e+000</stageThreshold>
      <weakClassifiers>
        <_>
          <internalNodes>
            0 -1 24 5.7667262852191925e-002</internalNodes>
          <leafValues>
            -8.7464112043380737e-001 3.8345864415168762e-001</leafValues></_>
        <_>
          <internalNodes>
            0 -1 32 -2.8209038078784943e-002</internalNodes>
          <leafValues>
            2.4379420280456543e-001 -8.5968703031539917e-001</leafValues></_>
        <_>
          <internalNodes>
            0 -1 28 -4.6921131433919072e-004</internalNodes>
          <leafValues>
            3.3106523752212524e-001 -7.9553949832916260e-001</leafValues></_></weakClassifiers></_>
    <!-- stage 4 -->
    <_>
      <maxWeakCount>4</maxWeakCount>
      <stageThreshold>-1.2569725513458252e+000</stageThreshold>
      <weakClassifiers>
        <_>
          <internalNodes>
            0 -1 21 4.9626529216766357e-002</internalNodes>
          <leafValues>
            -8.8200879096984863e-001 1.8604651093482971e-001</leafValues></_>
        <_>
          <internalNodes>
            0 -1 16 -4.8233056440949440e-003</internalNodes>
          <leafValues>
            2.1338534355163574e-001 -8.4841585159301758e-001</leafValues></_>
        <_>
          <internalNodes>
            0 -1 2 5.2838248666375875e-004</internalNodes>
          <leafValues>
            -9.2373585700988770e-001 2.3471793532371521e-001</leafValues></_>
        <_>
          <internalNodes>
            0 -1 29 -1.3081793440505862e-004</internalNodes>
          <leafValues>
            3.3538675308227539e-001 -8.1281864643096924e-001</leafValues></_></weakClassifiers></_>
    <!-- stage 5 -->
    <_>
      <maxWeakCount>5</maxWeakCount>
      <stageThreshold>-1.5129402875900269e+000</stageThreshold>
      <weakClassifiers>
        <_>
          <internalNodes>
            0 -1 17 7.6995298266410828e-002</internalNodes>
          <leafValues>
            -8.4932148456573486e-001 4.4186046719551086e-001</leafValues></_>
        <_>
          <internalNodes>
            0 -1 5 1.1037255171686411e-003</internalNodes>
          <leafValues>
            -6.8131417036056519e-001 3.4174746274948120e-001</leafValues></_>
        <_>
          <internalNodes>
            0 -1 31 1.5550368465483189e-002</internalNodes>
          <leafValues>
            -7.1913921833038330e-001 3.7213084101676941e-001</leafValues></_>
        <_>
          <internalNodes>
            0 -1 18 -9.9332947283983231e-003</internalNodes>
          <leafValues>
            3.7520208954811096e-001 -7.4604499340057373e-001</leafValues></_>
        <_>
          <internalNodes>
            0 -1 23 -2.0924949785694480e-004</internalNodes>
          <leafValues>
            4.6575182676315308e-001 -6.3145208358764648e-001</leafValues></_></weakClassifiers></_>
    <!-- stage 6 -->
    <_>
      <maxWeakCount>5</maxWeakCount>
      <stageThreshold>-1.4988384246826172e+000</stageThreshold>
      <weakClassifiers>
        <_>
          <internalNodes>
            0 -1 10 5.7297617197036743e-002</internalNodes>
          <leafValues>
            -8.5014134645462036e-001 2.6732674241065979e-001</leafValues></_>
        <_>
          <internalNodes>
            0 -1 4 -4.7091143205761909e-003</internalNodes>
          <leafValues>
            6.7166662216186523e-001 -5.4234099388122559e-001</leafValues></_>
        <_>
          <internalNodes>
            0 -1 0 3.3272375731030479e-005</internalNodes>
          <leafValues>
            -9.5174175500869751e-001 2.9074221849441528e-001</leafValues></_>
        <_>
          <internalNodes>
            0 -1 20 3.1444258987903595e-002</internalNodes>
          <leafValues>
            -7.0930552482604980e-001 3.3362895250320435e-001</leafValues></_>
        <_>
          <internalNodes>
            0 -1 0 6.9658807478845119e-004</internalNodes>
          <leafValues>
            4.5217257738113403e-001 -7.3072725534439087e-001</leafValues></_></weakClassifiers></_>
    <!-- stage 7 -->
    <_>
      <maxWeakCount>5</maxWeakCount>
      <stageThreshold>-2.5307424068450928e+000</stageThreshold>
      <weakClassifiers>
        <_>
          <internalNodes>
            0 -1 27 2.6485232636332512e-002</internalNodes>
          <leafValues>
            -8.5018724203109741e-001 4.4827586412429810e-001</leafValues></_>
        <_>
          <internalNodes>
            0 -1 25 1.8005620688199997e-002</internalNodes>
          <leafValues>
            -5.5470609664916992e-001 6.5520066022872925e-001</leafValues></_>
        <_>
          <internalNodes>
            0 -1 7 2.5032431585714221e-004</internalNodes>
          <leafValues>
            -8.3155071735382080e-001 3.1633278727531433e-001</leafValues></_>
        <_>
          <internalNodes>
            0 -1 11 1.0714558884501457e-002</internalNodes>
          <leafValues>
            -7.5182694196701050e-001 3.3928266167640686e-001</leafValues></_>
        <_>
          <internalNodes>
            0 -1 22 -3.4466247598174959e-005</internalNodes>
          <leafValues>
            3.5212746262550354e-001 -7.5237810611724854e-001</leafValues></_></weakClassifiers></_>
    <!-- stage 8 -->
    <_>
      <maxWeakCount>5</maxWeakCount>
      <stageThreshold>-1.6488565206527710e+000</stageThreshold>
      <weakClassifiers>
        <_>
          <internalNodes>
            0 -1 14 3.2542338594794273e-003</internalNodes>
          <leafValues>
            -8.4601026773452759e-001 4.4999998807907104e-001</leafValues></_>
        <_>
          <internalNodes>
            0 -1 19 -1.4122829772531986e-002</internalNodes>
          <leafValues>
            4.8449012637138367e-001 -6.2411588430404663e-001</leafValues></_>
        <_>
          <internalNodes>
            0 -1 8 -1.5715560948592611e-005</internalNodes>
          <leafValues>
            3.9059716463088989e-001 -7.5420749187469482e-001</leafValues></_>
        <_>
          <internalNodes>
            0 -1 8 -1.3125027180649340e-004</internalNodes>
          <leafValues>
            -8.9231538772583008e-001 3.4402900934219360e-001</leafValues></_>
        <_>
          <internalNodes>
            0 -1 22 -2.2684555733576417e-004</internalNodes>
          <leafValues>
            -7.6523935794830322e-001 3.2298782467842102e-001</leafValues></_></weakClassifiers></_></stages>
  <features>
    <_>
      <rects>
        <_>
          0 0 4 1 -1.</_>
        <_>
          2 0 2 1 2.</_></rects>
      <tilted>0</tilted></_>
    <_>
      <rects>
        <_>
          0 0 2 10 -1.</_>
        <_>
          0 5 2 5 2.</_></rects>
      <tilted>0</tilted></_>
    <_>
      <rects>
        <_>
          0 1 1 3 -1.</_>
        <_>
          0 2 1 1 3.</_></rects>
      <tilted>0</tilted></_>
    <_>
      <rects>
        <_>
          0 1 24 2 -1.</_>
        <_>
          0 2 24 1 2.</_></rects>
      <tilted>0</tilted></_>
    <_>
      <rects>
        <_>
          0 6 1 4 -1.</_>
        <_>
          0 7 1 2 2.</_></rects>
      <tilted>0</tilted></_>
    <_>
      <rects>
        <_>
          0 7 2 1 -1.</_>
        <_>
          1 7 1 1 2.</_></rects>
      <tilted>0</tilted></_>
    <_>
      <rects>
        <_>
          0 20 1 4 -1.</_>
        <_>
          0 21 1 2 2.</_></rects>
      <tilted>0</tilted></_>
    <_>
      <rects>
        <_>
          0 22 1 2 -1.</_>
        <_>
          0 23 1 1 2.</_></rects>
      <tilted>0</tilted></_>
    <_>
      <rects>
        <_>
          1 0 3 1 -1.</_>
        <_>
          2 0 1 1 3.</_></rects>
      <tilted>0</tilted></_>
    <_>
      <rects>
        <_>
          1 1 1 2 -1.</_>
        <_>
          1 2 1 1 2.</_></rects>
      <tilted>0</tilted></_>
    <_>
      <rects>
        <_>
          1 10 9 5 -1.</_>
        <_>
          4 10 3 5 3.</_></rects>
      <tilted>0</tilted></_>
    <_>
      <rects>
        <_>
          2 0 4 4 -1.</_>
        <_>
          2 2 4 2 2.</_></rects>
      <tilted>0</tilted></_>
    <_>
      <rects>
        <_>
          2 13 12 5 -1.</_>
        <_>
          5 13 6 5 2.</_></rects>
      <tilted>0</tilted></_>
    <_>
      <rects>
        <_>
          4 9 16 6 -1.</_>
        <_>
          8 9 8 6 2.</_></rects>
      <tilted>0</tilted></_>
    <_>
      <rects>
        <_>
          4 21 2 2 -1.</_>
        <_>
          4 21 1 1 2.</_>
        <_>
          5 22 1 1 2.</_></rects>
      <tilted>0</tilted></_>
    <_>
      <rects>
        <_>
          7 0 12 15 -1.</_>
        <_>
          7 5 12 5 3.</_></rects>
      <tilted>0</tilted></_>
    <_>
      <rects>
        <_>
          7 22 15 1 -1.</_>
        <_>
          12 22 5 1 3.</_></rects>
      <tilted>0</tilted></_>
    <_>
      <rects>
        <_>
          8 10 6 6 -1.</_>
        <_>
          6 12 6 2 3.</_></rects>
      <tilted>1</tilted></_>
    <_>
      <rects>
        <_>
          9 12 12 3 -1.</_>
        <_>
          13 13 4 1 9.</_></rects>
      <tilted>0</tilted></_>
    <_>
      <rects>
        <_>
          11 2 2 9 -1.</_>
        <_>
          11 2 1 9 2.</_></rects>
      <tilted>1</tilted></_>
    <_>
      <rects>
        <_>
          14 5 7 6 -1.</_>
        <_>
          14 5 7 3 2.</_></rects>
      <tilted>1</tilted></_>
    <_>
      <rects>
        <_>
          14 9 9 7 -1.</_>
        <_>
          17 9 3 7 3.</_></rects>
      <tilted>0</tilted></_>
    <_>
      <rects>
        <_>
          15 0 3 1 -1.</_>
        <_>
          16 0 1 1 3.</_></rects>
      <tilted>0</tilted></_>
    <_>
      <rects>
        <_>
          17 23 2 1 -1.</_>
        <_>
          18 23 1 1 2.</_></rects>
      <tilted>0</tilted></_>
    <_>
      <rects>
        <_>
          18 10 6 6 -1.</_>
        <_>
          20 12 2 6 3.</_></rects>
      <tilted>1</tilted></_>
    <_>
      <rects>
        <_>
          18 13 3 4 -1.</_>
        <_>
          19 14 1 4 3.</_></rects>
      <tilted>1</tilted></_>
    <_>
      <rects>
        <_>
          20 0 4 6 -1.</_>
        <_>
          20 3 4 3 2.</_></rects>
      <tilted>0</tilted></_>
    <_>
      <rects>
        <_>
          20 13 3 5 -1.</_>
        <_>
          21 14 1 5 3.</_></rects>
      <tilted>1</tilted></_>
    <_>
      <rects>
        <_>
          20 20 4 2 -1.</_>
        <_>
          20 20 2 1 2.</_>
        <_>
          22 21 2 1 2.</_></rects>
      <tilted>0</tilted></_>
    <_>
      <rects>
        <_>
          20 23 2 1 -1.</_>
        <_>
          21 23 1 1 2.</_></rects>
      <tilted>0</tilted></_>
    <_>
      <rects>
        <_>
          21 0 3 4 -1.</_>
        <_>
          21 2 3 2 2.</_></rects>
      <tilted>0</tilted></_>
    <_>
      <rects>
        <_>
          22 1 2 12 -1.</_>
        <_>
          22 4 2 6 2.</_></rects>
      <tilted>0</tilted></_>
    <_>
      <rects>
        <_>
          22 4 2 20 -1.</_>
        <_>
          22 14 2 10 2.</_></rects>
      <tilted>0</tilted></_></features></cascade>
</opencv_storage>
