<?xml version="1.0"?>
<opencv_storage>
<cascade>
  <stageType>BOOST</stageType>
  <featureType>HAAR</featureType>
  <height>24</height>
  <width>24</width>
  <stageParams>
    <boostType>GAB</boostType>
    <minHitRate>9.9500000476837158e-001</minHitRate>
    <maxFalseAlarm>5.0000000000000000e-001</maxFalseAlarm>
    <weightTrimRate>9.4999998807907104e-001</weightTrimRate>
    <maxDepth>1</maxDepth>
    <maxWeakCount>100</maxWeakCount></stageParams>
  <featureParams>
    <maxCatCount>0</maxCatCount>
    <featSize>1</featSize>
    <mode>BASIC</mode></featureParams>
  <stageNum>8</stageNum>
  <stages>
    <!-- stage 0 -->
    <_>
      <maxWeakCount>4</maxWeakCount>
      <stageThreshold>-2.2503697872161865e+000</stageThreshold>
      <weakClassifiers>
        <_>
          <internalNodes>
            0 -1 3 -3.8823649287223816e-002</internalNodes>
          <leafValues>
            3.3333334326744080e-001 -9.6117472648620605e-001</leafValues></_>
        <_>
          <internalNodes>
            0 -1 22 -1.3932527974247932e-002</internalNodes>
          <leafValues>
            6.6111677885055542e-001 -8.6780971288681030e-001</leafValues></_>
        <_>
          <internalNodes>
            0 -1 19 -3.9276361465454102e-002</internalNodes>
          <leafValues>
            6.2608307600021362e-001 -8.5544294118881226e-001</leafValues></_>
        <_>
          <internalNodes>
            0 -1 21 1.3797834515571594e-002</internalNodes>
          <leafValues>
            -8.6045044660568237e-001 5.9449809789657593e-001</leafValues></_></weakClassifiers></_>
    <!-- stage 1 -->
    <_>
      <maxWeakCount>4</maxWeakCount>
      <stageThreshold>-2.0656054019927979e+000</stageThreshold>
      <weakClassifiers>
        <_>
          <internalNodes>
            0 -1 4 3.8226030766963959e-002</internalNodes>
          <leafValues>
            -9.4899457693099976e-001 5.6666666269302368e-001</leafValues></_>
        <_>
          <internalNodes>
            0 -1 23 1.2716351076960564e-002</internalNodes>
          <leafValues>
            -8.4354078769683838e-001 5.2926719188690186e-001</leafValues></_>
        <_>
          <internalNodes>
            0 -1 8 -2.3383896797895432e-002</internalNodes>
          <leafValues>
            6.7213028669357300e-001 -6.9726008176803589e-001</leafValues></_>
        <_>
          <internalNodes>
            0 -1 10 8.1896437332034111e-003</internalNodes>
          <leafValues>
            -9.4520032405853271e-001 4.5391798019409180e-001</leafValues></_></weakClassifiers></_>
    <!-- stage 2 -->
    <_>
      <maxWeakCount>4</maxWeakCount>
      <stageThreshold>-2.0904214382171631e+000</stageThreshold>
      <weakClassifiers>
        <_>
          <internalNodes>
            0 -1 30 -3.3682584762573242e-002</internalNodes>
          <leafValues>
            8.5714286565780640e-001 -9.4166260957717896e-001</leafValues></_>
        <_>
          <internalNodes>
            0 -1 25 1.3141516596078873e-002</internalNodes>
          <leafValues>
            -8.5203266143798828e-001 3.5363247990608215e-001</leafValues></_>
        <_>
          <internalNodes>
            0 -1 16 9.4263348728418350e-003</internalNodes>
          <leafValues>
            -6.7433679103851318e-001 7.1285986900329590e-001</leafValues></_>
        <_>
          <internalNodes>
            0 -1 2 -1.7787527292966843e-002</internalNodes>
          <leafValues>
            5.6107091903686523e-001 -8.2805454730987549e-001</leafValues></_></weakClassifiers></_>
    <!-- stage 3 -->
    <_>
      <maxWeakCount>4</maxWeakCount>
      <stageThreshold>-1.9343340396881104e+000</stageThreshold>
      <weakClassifiers>
        <_>
          <internalNodes>
            0 -1 5 2.5451973080635071e-002</internalNodes>
          <leafValues>
            -9.3965935707092285e-001 6.8181818723678589e-001</leafValues></_>
        <_>
          <internalNodes>
            0 -1 28 -3.5593735519796610e-003</internalNodes>
          <leafValues>
            4.8111769556999207e-001 -8.3688354492187500e-001</leafValues></_>
        <_>
          <internalNodes>
            0 -1 18 4.5189440250396729e-002</internalNodes>
          <leafValues>
            -7.7866244316101074e-001 4.5563155412673950e-001</leafValues></_>
        <_>
          <internalNodes>
            0 -1 12 -7.3639992624521255e-003</internalNodes>
          <leafValues>
            6.7064088582992554e-001 -6.1342263221740723e-001</leafValues></_></weakClassifiers></_>
    <!-- stage 4 -->
    <_>
      <maxWeakCount>4</maxWeakCount>
      <stageThreshold>-2.0047569274902344e+000</stageThreshold>
      <weakClassifiers>
        <_>
          <internalNodes>
            0 -1 31 -7.4926048517227173e-002</internalNodes>
          <leafValues>
            4.9090909957885742e-001 -9.4324851036071777e-001</leafValues></_>
        <_>
          <internalNodes>
            0 -1 13 -5.3109754808247089e-003</internalNodes>
          <leafValues>
            2.6210016012191772e-001 -8.4109807014465332e-001</leafValues></_>
        <_>
          <internalNodes>
            0 -1 17 -8.6731668561697006e-003</internalNodes>
          <leafValues>
            3.5061120986938477e-001 -7.6163810491561890e-001</leafValues></_>
        <_>
          <internalNodes>
            0 -1 26 8.8608507066965103e-003</internalNodes>
          <leafValues>
            -5.7102149724960327e-001 6.5819680690765381e-001</leafValues></_></weakClassifiers></_>
    <!-- stage 5 -->
    <_>
      <maxWeakCount>5</maxWeakCount>
      <stageThreshold>-1.7557910680770874e+000</stageThreshold>
      <weakClassifiers>
        <_>
          <internalNodes>
            0 -1 32 1.6446828842163086e-002</internalNodes>
          <leafValues>
            -8.9132708311080933e-001 4.9206349253654480e-001</leafValues></_>
        <_>
          <internalNodes>
            0 -1 0 2.1566499024629593e-002</internalNodes>
          <leafValues>
            -8.2353407144546509e-001 3.6540818214416504e-001</leafValues></_>
        <_>
          <internalNodes>
            0 -1 11 5.0084963440895081e-002</internalNodes>
          <leafValues>
            -6.9103592634201050e-001 5.0473189353942871e-001</leafValues></_>
        <_>
          <internalNodes>
            0 -1 7 2.0637612789869308e-002</internalNodes>
          <leafValues>
            -8.8444125652313232e-001 4.4417172670364380e-001</leafValues></_>
        <_>
          <internalNodes>
            0 -1 6 -1.1734205763787031e-003</internalNodes>
          <leafValues>
            3.4560504555702209e-001 -8.6386620998382568e-001</leafValues></_></weakClassifiers></_>
    <!-- stage 6 -->
    <_>
      <maxWeakCount>6</maxWeakCount>
      <stageThreshold>-1.0685358047485352e+000</stageThreshold>
      <weakClassifiers>
        <_>
          <internalNodes>
            0 -1 29 1.3230321928858757e-002</internalNodes>
          <leafValues>
            -7.6397514343261719e-001 5.8441555500030518e-001</leafValues></_>
        <_>
          <internalNodes>
            0 -1 13 -4.5614596456289291e-003</internalNodes>
          <leafValues>
            6.6998773813247681e-001 -5.6049138307571411e-001</leafValues></_>
        <_>
          <internalNodes>
            0 -1 27 -3.9131306111812592e-003</internalNodes>
          <leafValues>
            7.2969603538513184e-001 -5.2899485826492310e-001</leafValues></_>
        <_>
          <internalNodes>
            0 -1 9 7.0474366657435894e-003</internalNodes>
          <leafValues>
            -8.8524478673934937e-001 4.1502407193183899e-001</leafValues></_>
        <_>
          <internalNodes>
            0 -1 14 -5.8863861486315727e-003</internalNodes>
          <leafValues>
            8.3346801996231079e-001 -4.5346549153327942e-001</leafValues></_>
        <_>
          <internalNodes>
            0 -1 20 -5.3882803767919540e-003</internalNodes>
          <leafValues>
            8.2336705923080444e-001 -3.6078727245330811e-001</leafValues></_></weakClassifiers></_>
    <!-- stage 7 -->
    <_>
      <maxWeakCount>3</maxWeakCount>
      <stageThreshold>4.5458489656448364e-001</stageThreshold>
      <weakClassifiers>
        <_>
          <internalNodes>
            0 -1 24 -3.0031271744519472e-003</internalNodes>
          <leafValues>
            8.5263156890869141e-001 -6.2068963050842285e-001</leafValues></_>
        <_>
          <internalNodes>
            0 -1 15 -2.6666852645576000e-003</internalNodes>
          <leafValues>
            -8.8406103849411011e-001 6.0206788778305054e-001</leafValues></_>
        <_>
          <internalNodes>
            0 -1 1 4.1955197229981422e-003</internalNodes>
          <leafValues>
            4.8601433634757996e-001 -9.1173529624938965e-001</leafValues></_></weakClassifiers></_></stages>
  <features>
    <_>
      <rects>
        <_>
          0 2 12 6 -1.</_>
        <_>
          0 2 6 3 2.</_>
        <_>
          6 5 6 3 2.</_></rects>
      <tilted>0</tilted></_>
    <_>
      <rects>
        <_>
          0 6 18 10 -1.</_>
        <_>
          0 11 18 5 2.</_></rects>
      <tilted>0</tilted></_>
    <_>
      <rects>
        <_>
          1 9 6 14 -1.</_>
        <_>
          1 9 3 7 2.</_>
        <_>
          4 16 3 7 2.</_></rects>
      <tilted>0</tilted></_>
    <_>
      <rects>
        <_>
          1 18 12 4 -1.</_>
        <_>
          1 18 6 2 2.</_>
        <_>
          7 20 6 2 2.</_></rects>
      <tilted>0</tilted></_>
    <_>
      <rects>
        <_>
          2 2 10 4 -1.</_>
        <_>
          2 2 5 2 2.</_>
        <_>
          7 4 5 2 2.</_></rects>
      <tilted>0</tilted></_>
    <_>
      <rects>
        <_>
          2 3 4 6 -1.</_>
        <_>
          2 3 2 3 2.</_>
        <_>
          4 6 2 3 2.</_></rects>
      <tilted>0</tilted></_>
    <_>
      <rects>
        <_>
          2 11 4 6 -1.</_>
        <_>
          2 14 4 3 2.</_></rects>
      <tilted>0</tilted></_>
    <_>
      <rects>
        <_>
          3 3 15 5 -1.</_>
        <_>
          8 3 5 5 3.</_></rects>
      <tilted>0</tilted></_>
    <_>
      <rects>
        <_>
          3 18 10 4 -1.</_>
        <_>
          3 18 5 2 2.</_>
        <_>
          8 20 5 2 2.</_></rects>
      <tilted>0</tilted></_>
    <_>
      <rects>
        <_>
          4 11 8 12 -1.</_>
        <_>
          4 15 8 4 3.</_></rects>
      <tilted>0</tilted></_>
    <_>
      <rects>
        <_>
          7 4 9 5 -1.</_>
        <_>
          10 4 3 5 3.</_></rects>
      <tilted>0</tilted></_>
    <_>
      <rects>
        <_>
          7 15 12 6 -1.</_>
        <_>
          7 17 12 2 3.</_></rects>
      <tilted>0</tilted></_>
    <_>
      <rects>
        <_>
          8 5 2 4 -1.</_>
        <_>
          8 7 2 2 2.</_></rects>
      <tilted>0</tilted></_>
    <_>
      <rects>
        <_>
          9 12 3 3 -1.</_>
        <_>
          10 12 1 3 3.</_></rects>
      <tilted>0</tilted></_>
    <_>
      <rects>
        <_>
          10 0 3 3 -1.</_>
        <_>
          10 1 3 1 3.</_></rects>
      <tilted>0</tilted></_>
    <_>
      <rects>
        <_>
          10 2 6 5 -1.</_>
        <_>
          12 2 2 5 3.</_></rects>
      <tilted>0</tilted></_>
    <_>
      <rects>
        <_>
          10 9 3 4 -1.</_>
        <_>
          11 9 1 4 3.</_></rects>
      <tilted>0</tilted></_>
    <_>
      <rects>
        <_>
          10 11 6 6 -1.</_>
        <_>
          10 11 3 3 2.</_>
        <_>
          13 14 3 3 2.</_></rects>
      <tilted>0</tilted></_>
    <_>
      <rects>
        <_>
          10 16 12 8 -1.</_>
        <_>
          10 16 6 4 2.</_>
        <_>
          16 20 6 4 2.</_></rects>
      <tilted>0</tilted></_>
    <_>
      <rects>
        <_>
          11 0 12 8 -1.</_>
        <_>
          11 0 6 4 2.</_>
        <_>
          17 4 6 4 2.</_></rects>
      <tilted>0</tilted></_>
    <_>
      <rects>
        <_>
          12 13 3 2 -1.</_>
        <_>
          13 13 1 2 3.</_></rects>
      <tilted>0</tilted></_>
    <_>
      <rects>
        <_>
          12 13 2 9 -1.</_>
        <_>
          12 16 2 3 3.</_></rects>
      <tilted>0</tilted></_>
    <_>
      <rects>
        <_>
          13 9 2 12 -1.</_>
        <_>
          13 9 1 6 2.</_>
        <_>
          14 15 1 6 2.</_></rects>
      <tilted>0</tilted></_>
    <_>
      <rects>
        <_>
          13 10 3 4 -1.</_>
        <_>
          14 10 1 4 3.</_></rects>
      <tilted>0</tilted></_>
    <_>
      <rects>
        <_>
          13 17 4 4 -1.</_>
        <_>
          15 17 2 4 2.</_></rects>
      <tilted>0</tilted></_>
    <_>
      <rects>
        <_>
          14 3 2 6 -1.</_>
        <_>
          14 5 2 2 3.</_></rects>
      <tilted>0</tilted></_>
    <_>
      <rects>
        <_>
          14 7 3 8 -1.</_>
        <_>
          15 7 1 8 3.</_></rects>
      <tilted>0</tilted></_>
    <_>
      <rects>
        <_>
          16 6 4 2 -1.</_>
        <_>
          18 6 2 2 2.</_></rects>
      <tilted>0</tilted></_>
    <_>
      <rects>
        <_>
          16 15 2 4 -1.</_>
        <_>
          16 15 1 2 2.</_>
        <_>
          17 17 1 2 2.</_></rects>
      <tilted>0</tilted></_>
    <_>
      <rects>
        <_>
          17 15 4 6 -1.</_>
        <_>
          17 15 2 3 2.</_>
        <_>
          19 18 2 3 2.</_></rects>
      <tilted>0</tilted></_>
    <_>
      <rects>
        <_>
          18 3 4 8 -1.</_>
        <_>
          18 3 2 4 2.</_>
        <_>
          20 7 2 4 2.</_></rects>
      <tilted>0</tilted></_>
    <_>
      <rects>
        <_>
          18 9 6 8 -1.</_>
        <_>
          20 9 2 8 3.</_></rects>
      <tilted>0</tilted></_>
    <_>
      <rects>
        <_>
          19 9 2 14 -1.</_>
        <_>
          19 9 1 7 2.</_>
        <_>
          20 16 1 7 2.</_></rects>
      <tilted>0</tilted></_></features></cascade>
</opencv_storage>
