<?xml version="1.0"?>
<opencv_storage>
<cascade>
  <stageType>BOOST</stageType>
  <featureType>HAAR</featureType>
  <height>20</height>
  <width>20</width>
  <stageParams>
    <boostType>GAB</boostType>
    <minHitRate>9.9500000476837158e-001</minHitRate>
    <maxFalseAlarm>5.0000000000000000e-001</maxFalseAlarm>
    <weightTrimRate>9.4999998807907104e-001</weightTrimRate>
    <maxDepth>1</maxDepth>
    <maxWeakCount>100</maxWeakCount></stageParams>
  <featureParams>
    <maxCatCount>0</maxCatCount>
    <featSize>1</featSize>
    <mode>BASIC</mode></featureParams>
  <stageNum>9</stageNum>
  <stages>
    <!-- stage 0 -->
    <_>
      <maxWeakCount>3</maxWeakCount>
      <stageThreshold>-1.2599201202392578e+000</stageThreshold>
      <weakClassifiers>
        <_>
          <internalNodes>
            0 -1 6 4.7643102705478668e-002</internalNodes>
          <leafValues>
            -9.5387637615203857e-001 7.0491802692413330e-001</leafValues></_>
        <_>
          <internalNodes>
            0 -1 18 5.7347450405359268e-002</internalNodes>
          <leafValues>
            -9.2886239290237427e-001 5.8694219589233398e-001</leafValues></_>
        <_>
          <internalNodes>
            0 -1 13 4.9220390617847443e-002</internalNodes>
          <leafValues>
            -8.9298593997955322e-001 7.0590972900390625e-001</leafValues></_></weakClassifiers></_>
    <!-- stage 1 -->
    <_>
      <maxWeakCount>4</maxWeakCount>
      <stageThreshold>-2.2207212448120117e+000</stageThreshold>
      <weakClassifiers>
        <_>
          <internalNodes>
            0 -1 37 -5.7065881788730621e-002</internalNodes>
          <leafValues>
            7.6744186878204346e-001 -9.4066148996353149e-001</leafValues></_>
        <_>
          <internalNodes>
            0 -1 11 5.2548017352819443e-002</internalNodes>
          <leafValues>
            -9.4459205865859985e-001 2.3698580265045166e-001</leafValues></_>
        <_>
          <internalNodes>
            0 -1 26 1.6298271715641022e-002</internalNodes>
          <leafValues>
            -7.1416836977005005e-001 7.2808825969696045e-001</leafValues></_>
        <_>
          <internalNodes>
            0 -1 3 -2.2798290476202965e-002</internalNodes>
          <leafValues>
            5.9433710575103760e-001 -8.0287730693817139e-001</leafValues></_></weakClassifiers></_>
    <!-- stage 2 -->
    <_>
      <maxWeakCount>4</maxWeakCount>
      <stageThreshold>-2.2857778072357178e+000</stageThreshold>
      <weakClassifiers>
        <_>
          <internalNodes>
            0 -1 38 -4.5828476548194885e-002</internalNodes>
          <leafValues>
            5.7446807622909546e-001 -9.3957114219665527e-001</leafValues></_>
        <_>
          <internalNodes>
            0 -1 21 4.4958731159567833e-003</internalNodes>
          <leafValues>
            -8.5401850938796997e-001 3.1878265738487244e-001</leafValues></_>
        <_>
          <internalNodes>
            0 -1 22 4.0143929421901703e-002</internalNodes>
          <leafValues>
            -8.8392055034637451e-001 3.6663377285003662e-001</leafValues></_>
        <_>
          <internalNodes>
            0 -1 14 1.7174279317259789e-002</internalNodes>
          <leafValues>
            -8.5882192850112915e-001 4.0357592701911926e-001</leafValues></_></weakClassifiers></_>
    <!-- stage 3 -->
    <_>
      <maxWeakCount>4</maxWeakCount>
      <stageThreshold>-2.0577943325042725e+000</stageThreshold>
      <weakClassifiers>
        <_>
          <internalNodes>
            0 -1 33 -2.6051249355077744e-002</internalNodes>
          <leafValues>
            6.2790697813034058e-001 -9.3774318695068359e-001</leafValues></_>
        <_>
          <internalNodes>
            0 -1 20 1.8209133297204971e-002</internalNodes>
          <leafValues>
            -8.1225937604904175e-001 5.8051419258117676e-001</leafValues></_>
        <_>
          <internalNodes>
            0 -1 32 3.8533307611942291e-002</internalNodes>
          <leafValues>
            -6.7172378301620483e-001 6.0295993089675903e-001</leafValues></_>
        <_>
          <internalNodes>
            0 -1 15 1.1516321450471878e-002</internalNodes>
          <leafValues>
            -8.8230240345001221e-001 3.6393213272094727e-001</leafValues></_></weakClassifiers></_>
    <!-- stage 4 -->
    <_>
      <maxWeakCount>6</maxWeakCount>
      <stageThreshold>-2.2665729522705078e+000</stageThreshold>
      <weakClassifiers>
        <_>
          <internalNodes>
            0 -1 35 2.8243990615010262e-002</internalNodes>
          <leafValues>
            -9.4742065668106079e-001 1.0843373835086823e-001</leafValues></_>
        <_>
          <internalNodes>
            0 -1 21 4.4762715697288513e-003</internalNodes>
          <leafValues>
            -8.5553556680679321e-001 2.7150937914848328e-001</leafValues></_>
        <_>
          <internalNodes>
            0 -1 0 5.8973170816898346e-002</internalNodes>
          <leafValues>
            -7.2697204351425171e-001 4.9754440784454346e-001</leafValues></_>
        <_>
          <internalNodes>
            0 -1 2 -1.6827279701828957e-002</internalNodes>
          <leafValues>
            7.2592693567276001e-001 -4.5625397562980652e-001</leafValues></_>
        <_>
          <internalNodes>
            0 -1 9 9.6256798133254051e-003</internalNodes>
          <leafValues>
            -6.9669377803802490e-001 4.5191726088523865e-001</leafValues></_>
        <_>
          <internalNodes>
            0 -1 19 -5.9648416936397552e-003</internalNodes>
          <leafValues>
            3.0305090546607971e-001 -9.1448879241943359e-001</leafValues></_></weakClassifiers></_>
    <!-- stage 5 -->
    <_>
      <maxWeakCount>4</maxWeakCount>
      <stageThreshold>-1.4859274625778198e+000</stageThreshold>
      <weakClassifiers>
        <_>
          <internalNodes>
            0 -1 34 2.0412649959325790e-002</internalNodes>
          <leafValues>
            -9.4134896993637085e-001 4.7169810533523560e-001</leafValues></_>
        <_>
          <internalNodes>
            0 -1 27 2.2841909900307655e-002</internalNodes>
          <leafValues>
            -8.2167583703994751e-001 5.1839417219161987e-001</leafValues></_>
        <_>
          <internalNodes>
            0 -1 24 2.3035485297441483e-002</internalNodes>
          <leafValues>
            -5.6688290834426880e-001 9.3073105812072754e-001</leafValues></_>
        <_>
          <internalNodes>
            0 -1 31 -9.1720903292298317e-003</internalNodes>
          <leafValues>
            8.4398025274276733e-001 -3.8072296977043152e-001</leafValues></_></weakClassifiers></_>
    <!-- stage 6 -->
    <_>
      <maxWeakCount>5</maxWeakCount>
      <stageThreshold>-2.6817498207092285e+000</stageThreshold>
      <weakClassifiers>
        <_>
          <internalNodes>
            0 -1 12 -5.2121117711067200e-002</internalNodes>
          <leafValues>
            2.3809524253010750e-002 -9.4441688060760498e-001</leafValues></_>
        <_>
          <internalNodes>
            0 -1 29 1.3462979346513748e-002</internalNodes>
          <leafValues>
            -8.4284371137619019e-001 1.6640393435955048e-001</leafValues></_>
        <_>
          <internalNodes>
            0 -1 30 -3.7894688546657562e-002</internalNodes>
          <leafValues>
            4.2202484607696533e-001 -6.9285458326339722e-001</leafValues></_>
        <_>
          <internalNodes>
            0 -1 28 1.4101743698120117e-002</internalNodes>
          <leafValues>
            -7.4086815118789673e-001 3.6197185516357422e-001</leafValues></_>
        <_>
          <internalNodes>
            0 -1 5 2.3638769984245300e-002</internalNodes>
          <leafValues>
            -5.6360667943954468e-001 5.2154821157455444e-001</leafValues></_></weakClassifiers></_>
    <!-- stage 7 -->
    <_>
      <maxWeakCount>5</maxWeakCount>
      <stageThreshold>-2.0564148426055908e+000</stageThreshold>
      <weakClassifiers>
        <_>
          <internalNodes>
            0 -1 10 2.6689624413847923e-002</internalNodes>
          <leafValues>
            -9.3719333410263062e-001 1.4754098653793335e-001</leafValues></_>
        <_>
          <internalNodes>
            0 -1 25 3.2875493168830872e-002</internalNodes>
          <leafValues>
            -8.3029627799987793e-001 2.4615344405174255e-001</leafValues></_>
        <_>
          <internalNodes>
            0 -1 4 -4.9017257988452911e-002</internalNodes>
          <leafValues>
            4.0327981114387512e-001 -7.3473715782165527e-001</leafValues></_>
        <_>
          <internalNodes>
            0 -1 7 -2.3344387300312519e-003</internalNodes>
          <leafValues>
            -9.3654406070709229e-001 2.1781280636787415e-001</leafValues></_>
        <_>
          <internalNodes>
            0 -1 16 5.6869927793741226e-003</internalNodes>
          <leafValues>
            -1. 2.2799906134605408e-001</leafValues></_></weakClassifiers></_>
    <!-- stage 8 -->
    <_>
      <maxWeakCount>5</maxWeakCount>
      <stageThreshold>-1.7491290569305420e+000</stageThreshold>
      <weakClassifiers>
        <_>
          <internalNodes>
            0 -1 36 -5.7797033339738846e-002</internalNodes>
          <leafValues>
            4.8717948794364929e-001 -9.3203884363174438e-001</leafValues></_>
        <_>
          <internalNodes>
            0 -1 17 1.0844662785530090e-001</internalNodes>
          <leafValues>
            -7.5466936826705933e-001 5.9986412525177002e-001</leafValues></_>
        <_>
          <internalNodes>
            0 -1 8 -4.2537108063697815e-002</internalNodes>
          <leafValues>
            6.4212924242019653e-001 -5.2552390098571777e-001</leafValues></_>
        <_>
          <internalNodes>
            0 -1 1 1.4040190726518631e-002</internalNodes>
          <leafValues>
            2.6783433556556702e-001 -9.5323020219802856e-001</leafValues></_>
        <_>
          <internalNodes>
            0 -1 23 -9.6025709062814713e-003</internalNodes>
          <leafValues>
            -9.9050748348236084e-001 1.9526875019073486e-001</leafValues></_></weakClassifiers></_></stages>
  <features>
    <_>
      <rects>
        <_>
          0 0 12 6 -1.</_>
        <_>
          0 0 6 3 2.</_>
        <_>
          6 3 6 3 2.</_></rects>
      <tilted>0</tilted></_>
    <_>
      <rects>
        <_>
          0 5 14 8 -1.</_>
        <_>
          0 9 14 4 2.</_></rects>
      <tilted>0</tilted></_>
    <_>
      <rects>
        <_>
          0 7 3 5 -1.</_>
        <_>
          1 7 1 5 3.</_></rects>
      <tilted>0</tilted></_>
    <_>
      <rects>
        <_>
          0 7 6 12 -1.</_>
        <_>
          0 7 3 6 2.</_>
        <_>
          3 13 3 6 2.</_></rects>
      <tilted>0</tilted></_>
    <_>
      <rects>
        <_>
          0 13 10 6 -1.</_>
        <_>
          0 13 5 3 2.</_>
        <_>
          5 16 5 3 2.</_></rects>
      <tilted>0</tilted></_>
    <_>
      <rects>
        <_>
          1 1 6 8 -1.</_>
        <_>
          1 1 3 4 2.</_>
        <_>
          4 5 3 4 2.</_></rects>
      <tilted>0</tilted></_>
    <_>
      <rects>
        <_>
          1 2 4 10 -1.</_>
        <_>
          1 2 2 5 2.</_>
        <_>
          3 7 2 5 2.</_></rects>
      <tilted>0</tilted></_>
    <_>
      <rects>
        <_>
          1 7 4 4 -1.</_>
        <_>
          1 9 4 2 2.</_></rects>
      <tilted>0</tilted></_>
    <_>
      <rects>
        <_>
          1 8 4 12 -1.</_>
        <_>
          1 8 2 6 2.</_>
        <_>
          3 14 2 6 2.</_></rects>
      <tilted>0</tilted></_>
    <_>
      <rects>
        <_>
          1 11 6 4 -1.</_>
        <_>
          4 11 3 4 2.</_></rects>
      <tilted>0</tilted></_>
    <_>
      <rects>
        <_>
          2 2 4 4 -1.</_>
        <_>
          2 2 2 2 2.</_>
        <_>
          4 4 2 2 2.</_></rects>
      <tilted>0</tilted></_>
    <_>
      <rects>
        <_>
          2 13 15 4 -1.</_>
        <_>
          7 13 5 4 3.</_></rects>
      <tilted>0</tilted></_>
    <_>
      <rects>
        <_>
          2 15 8 4 -1.</_>
        <_>
          2 15 4 2 2.</_>
        <_>
          6 17 4 2 2.</_></rects>
      <tilted>0</tilted></_>
    <_>
      <rects>
        <_>
          5 2 8 6 -1.</_>
        <_>
          5 4 8 2 3.</_></rects>
      <tilted>0</tilted></_>
    <_>
      <rects>
        <_>
          5 3 9 5 -1.</_>
        <_>
          8 3 3 5 3.</_></rects>
      <tilted>0</tilted></_>
    <_>
      <rects>
        <_>
          5 8 7 8 -1.</_>
        <_>
          5 12 7 4 2.</_></rects>
      <tilted>0</tilted></_>
    <_>
      <rects>
        <_>
          5 12 9 5 -1.</_>
        <_>
          8 12 3 5 3.</_></rects>
      <tilted>0</tilted></_>
    <_>
      <rects>
        <_>
          6 2 8 6 -1.</_>
        <_>
          6 4 8 2 3.</_></rects>
      <tilted>0</tilted></_>
    <_>
      <rects>
        <_>
          7 12 7 6 -1.</_>
        <_>
          7 14 7 2 3.</_></rects>
      <tilted>0</tilted></_>
    <_>
      <rects>
        <_>
          8 3 6 5 -1.</_>
        <_>
          11 3 3 5 2.</_></rects>
      <tilted>0</tilted></_>
    <_>
      <rects>
        <_>
          8 8 3 3 -1.</_>
        <_>
          9 8 1 3 3.</_></rects>
      <tilted>0</tilted></_>
    <_>
      <rects>
        <_>
          8 9 3 1 -1.</_>
        <_>
          9 9 1 1 3.</_></rects>
      <tilted>0</tilted></_>
    <_>
      <rects>
        <_>
          8 13 12 6 -1.</_>
        <_>
          8 13 6 3 2.</_>
        <_>
          14 16 6 3 2.</_></rects>
      <tilted>0</tilted></_>
    <_>
      <rects>
        <_>
          9 1 6 4 -1.</_>
        <_>
          11 1 2 4 3.</_></rects>
      <tilted>0</tilted></_>
    <_>
      <rects>
        <_>
          10 8 3 4 -1.</_>
        <_>
          11 8 1 4 3.</_></rects>
      <tilted>0</tilted></_>
    <_>
      <rects>
        <_>
          11 2 3 6 -1.</_>
        <_>
          11 4 3 2 3.</_></rects>
      <tilted>0</tilted></_>
    <_>
      <rects>
        <_>
          11 7 3 4 -1.</_>
        <_>
          12 7 1 4 3.</_></rects>
      <tilted>0</tilted></_>
    <_>
      <rects>
        <_>
          11 7 3 5 -1.</_>
        <_>
          12 7 1 5 3.</_></rects>
      <tilted>0</tilted></_>
    <_>
      <rects>
        <_>
          11 12 2 6 -1.</_>
        <_>
          11 14 2 2 3.</_></rects>
      <tilted>0</tilted></_>
    <_>
      <rects>
        <_>
          12 4 4 4 -1.</_>
        <_>
          12 4 2 2 2.</_>
        <_>
          14 6 2 2 2.</_></rects>
      <tilted>0</tilted></_>
    <_>
      <rects>
        <_>
          13 5 6 10 -1.</_>
        <_>
          16 5 3 10 2.</_></rects>
      <tilted>0</tilted></_>
    <_>
      <rects>
        <_>
          13 8 2 3 -1.</_>
        <_>
          14 8 1 3 2.</_></rects>
      <tilted>0</tilted></_>
    <_>
      <rects>
        <_>
          13 8 6 12 -1.</_>
        <_>
          13 8 3 6 2.</_>
        <_>
          16 14 3 6 2.</_></rects>
      <tilted>0</tilted></_>
    <_>
      <rects>
        <_>
          13 9 3 3 -1.</_>
        <_>
          14 9 1 3 3.</_></rects>
      <tilted>0</tilted></_>
    <_>
      <rects>
        <_>
          14 4 2 8 -1.</_>
        <_>
          14 4 1 4 2.</_>
        <_>
          15 8 1 4 2.</_></rects>
      <tilted>0</tilted></_>
    <_>
      <rects>
        <_>
          14 8 3 5 -1.</_>
        <_>
          15 8 1 5 3.</_></rects>
      <tilted>0</tilted></_>
    <_>
      <rects>
        <_>
          15 2 4 8 -1.</_>
        <_>
          15 2 2 4 2.</_>
        <_>
          17 6 2 4 2.</_></rects>
      <tilted>0</tilted></_>
    <_>
      <rects>
        <_>
          15 2 4 10 -1.</_>
        <_>
          15 2 2 5 2.</_>
        <_>
          17 7 2 5 2.</_></rects>
      <tilted>0</tilted></_>
    <_>
      <rects>
        <_>
          15 7 4 5 -1.</_>
        <_>
          17 7 2 5 2.</_></rects>
      <tilted>0</tilted></_></features></cascade>
</opencv_storage>
